
\data\
ngram 1=359

\1-grams:
-0.4763118	</s>
-99	<s>
-2.729165	اثارو
-2.729165	اختر
-2.729165	اخیسیتې
-2.729165	اداره
-2.729165	اداري
-2.729165	ادامه
-2.729165	ادب
-2.729165	ادعا
-2.729165	اراده
-2.729165	ارام
-2.729165	ارزانه
-2.729165	ارزو
-2.729165	ارزښت
-2.729165	ارمان
-2.729165	ازادشول
-2.729165	ازادي
-2.729165	اس
-2.729165	اساس
-2.729165	اساسي
-2.729165	اسان
-2.729165	اسانتیا
-2.729165	اسانه
-2.729165	استاد
-2.729165	استازي
-2.729165	استخدام
-2.729165	استراحت
-2.729165	استعداد
-2.729165	استعفا
-2.729165	استعمال
-2.729165	استول
-2.729165	استوم
-2.729165	اسراییل
-2.729165	اسلام
-2.729165	اسلامي
-2.729165	اسمان
-2.729165	اسيا
-2.729165	اشغال
-2.729165	اصطلاح
-2.729165	اصل
-2.729165	اصلاح
-2.729165	اصول
-2.729165	اطاعت
-2.729165	اعتبار
-2.729165	اعدام
-2.729165	اعلاميه
-2.729165	اعلان
-2.729165	اغوندم
-2.729165	اغېزمن
-2.729165	اغېزه
-2.729165	افسر
-2.729165	افغان
-2.729165	افغانانو
-2.729165	اقتصاد
-2.729165	اقتصادي
-2.729165	اقتصادی
-2.729165	اقليت
-2.729165	اقلیت
-2.729165	البته
-2.729165	الفت
-2.729165	المارۍ
-2.729165	الوتکه
-2.729165	امر
-2.729165	امریکایی
-2.729165	امنیت
-2.729165	امپراطوري
-2.729165	امکان
-2.729165	امید
-2.729165	انار
-2.729165	انتخابات
-2.729165	انتقاد
-2.729165	انتقال
-2.729165	اندازه
-2.729165	اندېښنه
-2.729165	انرژي
-2.729165	انسان
-2.729165	انسانان
-2.729165	انصاف
-2.729165	انعام
-2.729165	انټرنیټ
-2.729165	انځور
-2.729165	انکار
-2.729165	انګرېزي
-2.729165	اوبه
-2.729165	اورم
-2.729165	اورپکی
-2.729165	اډه
-2.729165	اړ
-2.729165	اړتيا
-2.729165	اړه
-2.729165	اړوند
-2.729165	اړیکی
-2.729165	اړېکو
-2.729165	اکثريت
-2.729165	اکثریت
-2.729165	ایستل
-2.729165	باب
-2.729165	باره
-2.729165	باید
-2.729165	بدلونونو
-2.729165	بريښنا
-2.729165	بریالي
-2.729165	بریدونه
-2.729165	بشریت
-2.729165	بشپړه
-2.729165	بلګونه
-2.729165	بنجشنبه
-2.729165	بنده
-2.729165	بندګانو
-2.729165	بندیان
-2.729165	بهرنۍ
-2.729165	بولي
-2.729165	بوټونه
-2.729165	بې
-2.729165	تبریکۍ
-2.729165	تجارتی
-2.729165	ترسره
-2.729165	ترټل
-2.729165	ترکاڼ
-2.729165	تطبیقیږي
-2.729165	تلويزیون
-2.729165	تنظیموي
-2.729165	تنو
-2.729165	توان
-2.729165	توصیه
-2.729165	تولیدوي
-2.729165	تيږي
-2.729165	تیری
-2.729165	تېر
-2.729165	جایزه
-2.729165	جرابي
-2.729165	جرم
-2.729165	جرمونو
-2.729165	جشن
-2.729165	جمال
-2.729165	جنوبي
-2.729165	جوپړ
-2.729165	جوړه
-2.729165	جوړول
-2.729165	جوړوم
-2.729165	جوړيږي
-2.729165	جګړه
-2.729165	جېب
-2.729165	حسابونه
-2.729165	حقوق
-2.729165	حل
-2.729165	خار
-2.729165	خان
-2.729165	خاندم
-2.729165	خاندو
-2.729165	خاندي
-2.729165	خاندې
-2.729165	خاوره
-2.729165	خبره
-2.729165	خپرېدو
-2.729165	دربه
-2.729165	درناوي
-2.729165	دروند
-2.729165	دري
-2.729165	درې
-2.729165	دغو
-2.729165	دفتر
-2.729165	دقیقې
-2.729165	دلویو
-2.729165	دمخنیوي
-2.729165	ده
-2.729165	دهغوي
-2.729165	دود
-2.729165	دوه
-2.729165	دښت
-2.729165	رباب
-2.729165	روغتیایي
-2.729165	روغه
-2.729165	زحمتکښ
-2.729165	زده
-2.729165	زموږ
-2.729165	زیات
-2.729165	زیاته
-2.729165	زیان
-2.729165	زېږېدلی
-2.729165	سره
-2.729165	شل
-2.729165	شیکاګو
-2.729165	غواړي
-2.729165	غچ
-2.729165	فرانکفورت
-2.729165	فولاد
-2.729165	لري
-2.729165	لندن
-2.729165	له
-2.729165	لومړنۍ
-2.729165	لویدیځو
-2.729165	لویو
-2.729165	لپاره
-2.729165	لږه
-2.729165	مالوم
-2.729165	مثلا
-2.729165	مخ
-2.729165	مراعات
-2.729165	مریض
-2.729165	معمولا
-2.729165	معیار
-2.729165	منځنۍ
-2.729165	موټرانو
-2.729165	موټرونه
-2.729165	می
-2.729165	ناره
-2.729165	نشتوالي
-2.729165	نورو
-2.729165	نیول
-2.729165	نیولو
-2.729165	هره
-2.729165	هغو
-2.729165	هم
-2.729165	همکاران
-2.729165	هیوادونو
-2.729165	واوسو
-2.729165	واټونو
-2.729165	وختي
-2.729165	وزارت
-2.729165	وسله
-2.729165	وسي
-2.729165	وشوه
-2.729165	وظيفه
-2.729165	ولاړاست
-2.729165	ولاړلې
-2.729165	ولاړمه
-2.729165	ولرم
-2.729165	ولرې
-2.729165	ولوست
-2.729165	ولوستئ
-2.729165	ولولئ
-2.729165	ولولم
-2.729165	ولولو
-2.729165	ولي
-2.729165	وليکې
-2.729165	ولیدئ
-2.729165	ولیدۍ
-2.729165	ولیکئ
-2.729165	ولیکم
-2.729165	ولیکو
-2.729165	ولیکي
-2.729165	ولېږئ
-2.729165	ولېږي
-2.729165	ونو
-2.729165	ونیسي
-2.729165	ونیول
-2.729165	وهل
-2.729165	وهلو
-2.729165	وهنه
-2.729165	ووايم
-2.729165	ووايمه
-2.729165	ووايو
-2.729165	ووايي
-2.729165	ووایاست
-2.729165	ووایی
-2.729165	ووژل
-2.729165	وویل
-2.729165	وویله
-2.729165	ووینم
-2.729165	ويل
-2.729165	ويلي
-2.729165	ويلی
-2.729165	وينه
-2.729165	وژاړئ
-2.729165	وژاړو
-2.729165	وژاړي
-2.729165	وژل
-2.729165	وژړل
-2.729165	وکتئ
-2.729165	وکم
-2.729165	وکي
-2.729165	وکړ
-2.729165	وکړم
-2.729165	وکړچي
-2.729165	وکړۍ
-2.729165	وګټله
-2.729165	ویاړم
-2.729165	ویل
-2.729165	وینا
-2.729165	وینم
-2.729165	وینه
-2.729165	ټاکل
-2.729165	ټاکنو
-2.729165	ټولني
-2.729165	ټولنیز
-2.729165	ټولنیزي
-2.729165	ټولو
-2.729165	ټولګي
-2.729165	ټوکي
-2.729165	ټیم
-2.729165	ټینګار
-2.729165	ټینګښت
-2.729165	پارک
-2.729165	پاسه
-2.729165	پاکستان
-2.729165	پایتخت
-2.729165	پراختیا
-2.729165	پرته
-2.729165	پرېمینخئ
-2.729165	پسرلي
-2.729165	پلورونکي
-2.729165	پوهانو
-2.729165	پوځي
-2.729165	پټېدل
-2.729165	پکښی
-2.729165	پیاوړتیا
-2.729165	پیغمبران
-2.729165	پېرېدونکو
-2.729165	ځئ
-2.729165	ځغلو
-2.729165	ځغلې
-2.729165	ځل
-2.729165	ځواکونو
-2.729165	ځړيږی
-2.729165	ځړېدل
-2.729165	ځی
-2.729165	څاګان
-2.729165	څو
-2.729165	څوارلسم
-2.729165	څېړني
-2.729165	چا
-2.729165	چاته
-2.729165	چارو
-2.729165	چین
-2.729165	ډار
-2.729165	ډول
-2.729165	ډکه
-2.729165	ډېره
-2.729165	ژبو
-2.729165	ښارونه
-2.729165	ښارونو
-2.729165	ښارونوکی
-2.729165	ښاري
-2.729165	کابل
-2.729165	کارته
-2.729165	کارکونکو
-2.729165	کافي
-2.729165	کثافت
-2.729165	کرني
-2.729165	کرښو
-2.729165	کم
-2.729165	کورنیو
-2.729165	کول
-2.729165	کوي
-2.729165	کيڼ
-2.729165	کړاو
-2.729165	کړه
-2.729165	کیلي
-2.729165	کیږي
-2.729165	ګوڼه
-2.729165	ګڼه
-2.729165	یار
-2.729165	یاست
-2.729165	یو
-2.729165	یوازی
-2.729165	یوه
-2.729165	یووالی

\end\
