
\data\
ngram 1=12

\1-grams:
-0.6049079	</s>
-99	<s>
-1.160558	eight
-1.115976	five
-1.166467	four
-1.085307	nine
-1.100371	one
-1.154728	seven
-1.126699	six
-1.09027	three
-1.10551	two
-1.143299	zero

\end\
