
\data\
ngram 1=9
ngram 2=12

\1-grams:
-0.4431368	</s>
-99	<s>	-0.6181699
-1.0894	bad	-0.7739224
-1.0894	bed	-0.6509622
-1.0894	beds	-0.6509622
-1.0894	bet	-0.6509622
-0.8205552	dad	-0.9198076
-1.0894	sad	-0.7739224
-1.0894	set	-0.8082266

\2-grams:
-0.7659168	<s> bad
-0.7659168	<s> beds
-0.7659168	<s> bet
-0.7659168	<s> sad
-0.7659168	<s> set
-0.06694679	bad dad
-0.06694679	bed </s>
-0.06694679	beds </s>
-0.06694679	bet </s>
-0.03476211	dad </s>
-0.06694679	sad dad
-0.06694679	set bed

\end\
